~o
<STREAMINFO> 1 26
<VECSIZE> 26<NULLD><MFCC_D_0><DIAGC>
~h "EIGHT"
<BEGINHMM>
<NUMSTATES> 5
<STATE> 2
<MEAN> 26
 -5.606558e+00 -5.843393e+00 1.319547e+01 -1.206979e+01 -1.595334e+01 -1.124570e+01 -7.051877e+00 -3.008706e+00 -1.188364e+01 1.209416e+00 -1.419140e+00 -4.336096e+00 6.919235e+01 4.053492e-02 4.018407e-01 3.343407e-01 1.023961e-01 -2.030531e-01 -1.123234e-01 -2.417691e-01 -4.668358e-01 1.840040e-02 -2.126589e-01 -4.643246e-02 -1.830041e-03 -3.422036e-02
<VARIANCE> 26
 2.522077e+01 4.580227e+01 5.472038e+01 1.760946e+02 2.776360e+02 8.599535e+01 1.515951e+02 6.947142e+01 7.635757e+01 5.356088e+01 1.233303e+02 5.494355e+01 8.152386e+01 6.305142e-01 1.336456e+00 1.655758e+00 2.554959e+00 1.529258e+00 2.789620e+00 2.397685e+00 2.612380e+00 1.912194e+00 1.819831e+00 2.049031e+00 1.637876e+00 3.551149e+00
<GCONST> 1.131727e+02
<STATE> 3
<MEAN> 26
 -9.722391e+00 -3.862020e+00 4.998918e+00 3.418659e+00 -1.615504e+01 -2.193108e+00 -6.686284e+00 -8.056094e+00 -4.323800e+00 -2.950329e+00 -1.273937e+00 1.399529e+00 5.804377e+01 -3.683300e-01 -8.696494e-02 -3.462424e-01 -5.223704e-03 2.474665e-01 8.690055e-02 3.159950e-01 1.528298e-01 1.430624e-01 1.260381e-01 1.394335e-01 1.809514e-01 -3.941358e-02
<VARIANCE> 26
 1.117942e+02 1.182687e+02 1.501794e+02 1.444419e+02 1.640020e+02 1.288133e+02 1.359254e+02 4.949693e+01 4.707596e+01 6.111322e+01 5.361461e+01 2.778913e+01 1.985100e+02 2.888639e+00 2.697992e+00 3.684608e+00 2.356586e+00 4.068410e+00 3.194883e+00 3.120097e+00 2.422248e+00 2.044727e+00 1.867488e+00 2.030035e+00 1.852700e+00 4.338686e+00
<GCONST> 1.195274e+02
<STATE> 4
<MEAN> 26
 -1.544699e+01 8.153309e-01 -1.650694e+00 -4.896438e-01 -3.365126e+00 2.290763e-01 1.391100e+00 1.402706e+00 2.054797e+00 2.163000e+00 2.353367e+00 1.875924e+00 5.076895e+01 7.097420e-02 -4.936031e-02 -3.159795e-02 1.105036e-02 8.866612e-03 3.750024e-02 -2.237689e-02 5.056342e-02 1.288588e-02 -3.649673e-02 -1.389541e-02 -6.918651e-03 -9.144382e-02
<VARIANCE> 26
 1.519991e+01 1.809360e+01 2.809118e+01 3.808787e+01 5.548589e+01 3.764542e+01 4.118553e+01 3.710773e+01 2.477850e+01 2.427636e+01 2.913057e+01 1.954034e+01 4.583364e+01 5.500937e-01 5.864480e-01 9.238335e-01 1.119429e+00 1.221324e+00 1.335078e+00 1.520648e+00 1.600094e+00 1.499243e+00 1.451311e+00 1.436925e+00 1.411561e+00 8.347923e-01
<GCONST> 9.350647e+01
<TRANSP> 5
 0.000000e+00 1.000000e+00 0.000000e+00 0.000000e+00 0.000000e+00
 0.000000e+00 9.367701e-01 6.322990e-02 0.000000e+00 0.000000e+00
 0.000000e+00 0.000000e+00 9.601917e-01 3.980830e-02 0.000000e+00
 0.000000e+00 0.000000e+00 0.000000e+00 9.742456e-01 2.575441e-02
 0.000000e+00 0.000000e+00 0.000000e+00 0.000000e+00 0.000000e+00
<ENDHMM>
