~o
<STREAMINFO> 1 26
<VECSIZE> 26<NULLD><MFCC_D_0><DIAGC>
~h "FIVE"
<BEGINHMM>
<NUMSTATES> 5
<STATE> 2
<MEAN> 26
 -1.590883e+01 6.061907e-01 -2.084057e+00 2.153493e+00 -2.722442e-02 3.925867e+00 1.457232e+00 4.051322e+00 3.642207e+00 3.710622e+00 3.107081e+00 3.153020e+00 4.964233e+01 -4.807460e-02 -4.790055e-02 -3.446056e-02 -2.323246e-02 -6.233538e-02 -3.777234e-02 -3.301843e-02 -1.236594e-02 -7.337325e-03 -5.218328e-03 -1.593454e-02 -1.493175e-02 1.644961e-01
<VARIANCE> 26
 1.172499e+01 1.141085e+01 2.881248e+01 1.762874e+01 3.617500e+01 2.649471e+01 3.821714e+01 3.602144e+01 4.058232e+01 2.792059e+01 2.578285e+01 2.475353e+01 2.996464e+01 3.042963e-01 3.388018e-01 4.776558e-01 8.489364e-01 1.044550e+00 1.412819e+00 1.272515e+00 1.349862e+00 1.576280e+00 1.380217e+00 1.188965e+00 1.205915e+00 3.343983e-01
<GCONST> 8.769320e+01
<STATE> 3
<MEAN> 26
 -3.952215e+00 -8.632118e+00 -4.496035e+00 -5.886152e+00 -1.085650e+01 -1.900218e+00 -4.152997e+00 -3.768635e+00 -3.565656e+00 -2.243340e+00 -5.840243e+00 -2.929309e+00 6.734163e+01 7.857617e-02 5.542635e-02 9.014126e-02 4.358967e-02 -8.047821e-02 -1.004240e-01 6.074111e-03 -1.010758e-02 -6.583139e-02 -1.568477e-02 -5.804499e-03 2.045782e-02 -4.249958e-02
<VARIANCE> 26
 8.633331e+01 9.016966e+01 8.051918e+01 1.224126e+02 1.177683e+02 1.643655e+02 8.413490e+01 1.079387e+02 6.205962e+01 5.518276e+01 5.183636e+01 7.299083e+01 7.554739e+01 2.665153e+00 1.556890e+00 1.506922e+00 2.560708e+00 2.394249e+00 2.638017e+00 2.189997e+00 2.446517e+00 1.993966e+00 2.080913e+00 2.118927e+00 1.914746e+00 1.256511e+00
<GCONST> 1.149741e+02
<STATE> 4
<MEAN> 26
 -1.594066e+01 -6.390733e-01 -2.775584e+00 -1.953934e-01 -3.171613e+00 4.057177e-01 -1.990838e-01 1.455674e+00 1.456794e+00 1.228870e+00 4.746798e-01 1.109300e+00 4.963703e+01 -8.670781e-03 -4.408857e-02 -8.134858e-02 -1.666695e-02 1.142507e-01 1.103994e-01 4.533776e-02 1.118938e-01 5.543032e-02 3.142563e-02 -2.127176e-03 -1.591895e-03 -1.255024e-01
<VARIANCE> 26
 8.885245e+00 1.147493e+01 1.224984e+01 9.714973e+00 2.931802e+01 2.771055e+01 1.918251e+01 2.207848e+01 2.534099e+01 1.720535e+01 1.723254e+01 1.521625e+01 2.330246e+01 3.820127e-01 4.474025e-01 6.482023e-01 7.860486e-01 8.939826e-01 1.254269e+00 1.148113e+00 1.531166e+00 1.821654e+00 1.596802e+00 1.524941e+00 1.306410e+00 2.357548e-01
<GCONST> 8.328231e+01
<TRANSP> 5
 0.000000e+00 1.000000e+00 0.000000e+00 0.000000e+00 0.000000e+00
 0.000000e+00 9.406371e-01 5.936289e-02 0.000000e+00 0.000000e+00
 0.000000e+00 0.000000e+00 9.809451e-01 1.905490e-02 0.000000e+00
 0.000000e+00 0.000000e+00 0.000000e+00 9.570253e-01 4.297470e-02
 0.000000e+00 0.000000e+00 0.000000e+00 0.000000e+00 0.000000e+00
<ENDHMM>
