~o
<STREAMINFO> 1 26
<VECSIZE> 26<NULLD><MFCC_D_0><DIAGC>
~h "FOUR"
<BEGINHMM>
<NUMSTATES> 5
<STATE> 2
<MEAN> 26
 -1.446821e+01 -8.001111e-01 -2.637162e+00 4.461075e-01 -4.244368e+00 2.303607e+00 -3.945992e-01 1.856960e+00 1.164637e+00 2.045648e+00 1.613099e+00 2.380358e+00 5.399580e+01 7.587616e-01 2.544771e-01 -8.604141e-02 -6.224441e-01 -4.539099e-01 -1.488568e-01 -1.682545e-01 -1.177924e-02 -2.624577e-01 -1.800683e-01 -6.372682e-02 -1.259264e-01 4.784243e-01
<VARIANCE> 26
 6.435992e+01 3.940135e+01 4.895741e+01 5.190199e+01 8.875481e+01 6.018706e+01 5.468979e+01 5.002009e+01 6.459024e+01 4.465129e+01 3.184877e+01 2.575132e+01 6.115029e+01 3.994102e+00 2.164800e+00 1.411575e+00 3.130198e+00 2.364945e+00 2.778665e+00 1.825446e+00 1.854649e+00 2.270726e+00 1.988616e+00 1.575671e+00 1.654802e+00 9.922189e-01
<GCONST> 1.079539e+02
<STATE> 3
<MEAN> 26
 4.762251e+00 -6.105129e-01 -9.009560e+00 -1.270144e+01 -1.323570e+01 -8.870941e-01 -9.106846e+00 8.419063e-01 -7.613059e+00 -4.664516e+00 -1.988861e+00 -3.168533e+00 6.446142e+01 -1.737698e-01 -2.275729e-01 -1.383364e-01 4.494560e-01 3.124600e-01 4.250239e-02 -5.461591e-03 1.046776e-01 1.117864e-01 4.690907e-03 3.680278e-03 6.804133e-02 -2.920200e-01
<VARIANCE> 26
 2.521015e+01 7.828608e+01 4.881625e+01 1.847362e+02 1.296619e+02 1.546057e+02 8.228017e+01 1.064993e+02 7.148761e+01 5.564784e+01 7.966441e+01 5.924884e+01 5.073783e+01 4.366332e-01 8.741661e-01 8.503028e-01 1.843854e+00 1.622552e+00 1.869367e+00 1.809714e+00 1.832879e+00 2.254432e+00 1.954701e+00 1.860260e+00 1.705124e+00 4.584185e-01
<GCONST> 1.077910e+02
<STATE> 4
<MEAN> 26
 -1.270432e+01 -1.112822e+00 -4.888949e+00 4.259168e-01 -2.901823e+00 1.577462e+00 -2.939409e-01 2.138862e+00 1.809067e+00 7.631552e-01 1.298692e+00 1.480844e+00 5.027625e+01 -2.054118e-01 6.399351e-02 1.184369e-01 1.351447e-02 -1.880282e-02 7.927197e-02 5.099072e-02 -9.288975e-02 3.625382e-02 7.235462e-02 5.580910e-02 -4.224909e-02 -1.973697e-01
<VARIANCE> 26
 3.145908e+01 2.268247e+01 2.683476e+01 1.886897e+01 3.649827e+01 3.047714e+01 2.998245e+01 2.749392e+01 2.275466e+01 2.262305e+01 1.970499e+01 1.483128e+01 3.644763e+01 3.893329e-01 5.203882e-01 7.858282e-01 7.913827e-01 9.855535e-01 1.207560e+00 1.228981e+00 1.530636e+00 1.451810e+00 1.591788e+00 1.302132e+00 1.295510e+00 3.733910e-01
<GCONST> 8.893822e+01
<TRANSP> 5
 0.000000e+00 1.000000e+00 0.000000e+00 0.000000e+00 0.000000e+00
 0.000000e+00 9.593433e-01 4.065677e-02 0.000000e+00 0.000000e+00
 0.000000e+00 0.000000e+00 9.732609e-01 2.673907e-02 0.000000e+00
 0.000000e+00 0.000000e+00 0.000000e+00 9.489875e-01 5.101253e-02
 0.000000e+00 0.000000e+00 0.000000e+00 0.000000e+00 0.000000e+00
<ENDHMM>
