~o
<STREAMINFO> 1 26
<VECSIZE> 26<NULLD><MFCC_D_0><DIAGC>
~h "NINE"
<BEGINHMM>
<NUMSTATES> 5
<STATE> 2
<MEAN> 26
 -9.167186e-01 2.997383e-01 8.919572e-01 1.439036e+00 -1.291221e+01 -3.080037e+00 -5.797317e+00 -8.847988e+00 -8.723278e+00 -1.567213e+00 -7.279055e+00 -3.105798e+00 5.894728e+01 4.427739e-01 -9.832143e-01 -3.494074e-01 -8.305640e-01 1.387774e-01 -3.180376e-01 -6.533204e-02 7.465134e-01 1.863417e-03 -3.792634e-01 -1.286703e-01 6.154642e-02 1.450892e+00
<VARIANCE> 26
 6.588706e+01 7.634215e+01 4.600014e+01 1.021517e+02 1.533117e+02 1.230099e+02 7.460947e+01 9.284985e+01 5.852866e+01 5.862201e+01 6.785925e+01 4.755713e+01 1.309117e+02 2.024968e+00 3.680250e+00 2.975430e+00 3.240524e+00 5.581382e+00 2.392377e+00 3.835336e+00 5.541651e+00 3.110772e+00 3.173344e+00 1.865105e+00 2.719840e+00 1.334017e+00
<GCONST> 1.186702e+02
<STATE> 3
<MEAN> 26
 9.162338e-01 -8.603924e+00 -7.504548e-01 -4.166883e+00 -8.489646e+00 -2.485889e+00 -7.096749e+00 -4.733949e+00 -8.704159e+00 -3.979289e+00 -7.780911e+00 -3.343599e+00 6.754919e+01 -1.721402e-01 2.948630e-01 1.031225e-01 2.889091e-01 -6.863436e-02 1.132429e-01 6.593370e-02 -1.527065e-01 -7.110308e-03 1.347360e-01 1.101016e-01 -6.096370e-02 -5.181701e-01
<VARIANCE> 26
 4.327166e+01 1.053651e+02 6.932656e+01 1.676063e+02 1.597280e+02 1.179678e+02 7.744685e+01 1.317665e+02 7.370397e+01 7.720238e+01 5.972894e+01 6.195314e+01 8.563889e+01 4.285180e-01 1.097613e+00 1.046211e+00 1.492503e+00 1.997696e+00 2.026805e+00 2.104532e+00 2.013855e+00 1.942821e+00 2.060893e+00 1.868762e+00 1.589599e+00 4.056335e-01
<GCONST> 1.100652e+02
<STATE> 4
<MEAN> 26
 -1.255641e+01 1.260876e-01 -1.483461e+00 -8.632010e-01 -1.477154e+00 1.748167e+00 -1.268668e+00 2.492557e+00 1.568938e+00 3.211778e-01 6.886511e-01 2.588010e-01 5.163322e+01 -3.226297e-02 -8.061239e-03 -4.130671e-02 -1.321742e-02 3.549503e-02 3.438897e-02 -5.180624e-03 2.127870e-02 2.691232e-02 -4.638726e-03 1.324091e-03 -5.829270e-04 -5.211024e-02
<VARIANCE> 26
 3.253340e+01 1.795534e+01 2.133957e+01 3.428250e+01 3.377094e+01 3.269554e+01 3.959480e+01 3.220484e+01 3.131312e+01 3.547626e+01 3.568124e+01 2.913649e+01 6.275335e+01 3.769446e-01 5.028044e-01 8.514826e-01 8.485896e-01 1.249697e+00 1.297095e+00 1.371550e+00 1.370184e+00 1.493881e+00 1.534636e+00 1.465672e+00 1.418007e+00 3.579283e-01
<GCONST> 9.266609e+01
<TRANSP> 5
 0.000000e+00 1.000000e+00 0.000000e+00 0.000000e+00 0.000000e+00
 0.000000e+00 9.235082e-01 7.649180e-02 0.000000e+00 0.000000e+00
 0.000000e+00 0.000000e+00 9.703552e-01 2.964479e-02 0.000000e+00
 0.000000e+00 0.000000e+00 0.000000e+00 9.764115e-01 2.358855e-02
 0.000000e+00 0.000000e+00 0.000000e+00 0.000000e+00 0.000000e+00
<ENDHMM>
