~o
<STREAMINFO> 1 26
<VECSIZE> 26<NULLD><MFCC_D_0><DIAGC>
~h "ONE"
<BEGINHMM>
<NUMSTATES> 5
<STATE> 2
<MEAN> 26
 -2.066347e+00 5.321575e+00 -3.939251e+00 -3.488014e+00 -1.468352e+01 2.772816e+00 -6.944624e+00 -1.692328e+00 -4.720008e+00 -4.033674e+00 -3.340743e+00 -1.951754e+00 5.459124e+01 6.490515e-01 -3.931553e-01 -1.963318e-01 -8.648102e-01 -2.234834e-01 1.476229e-01 1.056685e-01 2.396706e-01 -1.934300e-01 -1.189262e-01 -2.995823e-02 2.884491e-02 1.034170e+00
<VARIANCE> 26
 1.181542e+02 5.320189e+01 2.707383e+01 1.404737e+02 1.181852e+02 7.471976e+01 7.615345e+01 4.194589e+01 4.817167e+01 5.199424e+01 2.729674e+01 3.052764e+01 5.861493e+01 1.816699e+00 3.023247e+00 1.743304e+00 2.359634e+00 2.654970e+00 2.927516e+00 2.129928e+00 2.555128e+00 2.184737e+00 2.186430e+00 1.719677e+00 1.735940e+00 1.166020e+00
<GCONST> 1.102254e+02
<STATE> 3
<MEAN> 26
 2.580189e+00 -4.644198e+00 -3.433003e+00 -5.394162e+00 -8.533585e+00 -2.979991e-01 -7.663123e+00 -4.465965e+00 -9.409185e+00 -3.332940e+00 -7.361671e+00 -6.672328e+00 6.492622e+01 -3.457861e-01 6.561744e-02 1.815906e-01 6.935394e-01 2.970062e-01 -9.220488e-02 7.381534e-02 -1.809379e-01 3.219597e-02 7.254532e-02 -1.295635e-01 -6.910487e-02 -4.766936e-01
<VARIANCE> 26
 2.832320e+01 8.948887e+01 6.272504e+01 1.883885e+02 1.069603e+02 1.876135e+02 6.203404e+01 1.522650e+02 7.838526e+01 7.414507e+01 8.219606e+01 4.969160e+01 7.498714e+01 4.042524e-01 1.528777e+00 1.216951e+00 1.703308e+00 2.485986e+00 2.884243e+00 2.295424e+00 3.133662e+00 2.526987e+00 2.401335e+00 2.089056e+00 2.277839e+00 8.239162e-01
<GCONST> 1.127199e+02
<STATE> 4
<MEAN> 26
 -1.299197e+01 1.258438e+00 -2.505968e+00 6.402756e-01 -6.980751e-01 2.257980e+00 1.243876e+00 2.331052e+00 1.865833e+00 9.832284e-01 1.194231e+00 8.465613e-01 4.902850e+01 -8.522511e-02 -1.398705e-02 -5.281088e-02 -1.732751e-02 -1.576677e-02 -1.019447e-02 -4.852799e-03 2.741783e-02 2.044846e-02 -2.295823e-02 -9.314499e-04 -1.707703e-02 -9.088286e-02
<VARIANCE> 26
 2.826546e+01 1.119110e+01 1.866811e+01 5.180664e+01 3.883494e+01 3.491022e+01 2.431587e+01 2.825938e+01 3.058775e+01 4.321331e+01 2.897577e+01 2.216893e+01 2.656623e+01 4.659071e-01 3.865519e-01 6.553550e-01 1.157732e+00 1.345342e+00 1.289906e+00 1.242877e+00 1.527979e+00 1.530622e+00 1.551953e+00 1.437765e+00 1.348870e+00 3.335651e-01
<GCONST> 9.072395e+01
<TRANSP> 5
 0.000000e+00 1.000000e+00 0.000000e+00 0.000000e+00 0.000000e+00
 0.000000e+00 9.352672e-01 6.473286e-02 0.000000e+00 0.000000e+00
 0.000000e+00 0.000000e+00 9.640449e-01 3.595508e-02 0.000000e+00
 0.000000e+00 0.000000e+00 0.000000e+00 9.712580e-01 2.874199e-02
 0.000000e+00 0.000000e+00 0.000000e+00 0.000000e+00 0.000000e+00
<ENDHMM>
