~o
<STREAMINFO> 1 26
<VECSIZE> 26<NULLD><MFCC_D_0><DIAGC>
~h "SEVEN"
<BEGINHMM>
<NUMSTATES> 5
<STATE> 2
<MEAN> 26
 -2.046652e+01 2.026215e+00 -4.039173e+00 1.422016e+00 -3.187250e+00 8.652422e-01 1.372227e+00 -3.575125e-01 1.608163e+00 6.276630e-01 1.516209e+00 1.811849e+00 5.540105e+01 5.346985e-01 -2.115747e-01 -1.105766e-02 -2.013224e-01 -3.943886e-01 -4.074512e-01 -1.969692e-01 -4.220181e-02 -2.294321e-02 -1.671122e-01 -1.855314e-01 -8.257303e-02 6.565611e-01
<VARIANCE> 26
 7.272456e+01 9.642210e+01 8.008210e+01 2.523950e+01 1.028357e+02 1.059615e+02 6.752332e+01 3.792535e+01 4.191287e+01 3.812766e+01 2.988310e+01 2.305983e+01 8.478328e+01 4.420633e+00 1.750431e+00 1.872077e+00 1.539599e+00 2.486506e+00 3.089771e+00 2.211330e+00 1.693362e+00 1.893608e+00 1.685822e+00 1.948971e+00 1.316517e+00 9.309596e-01
<GCONST> 1.082435e+02
<STATE> 3
<MEAN> 26
 -2.590952e-01 -4.643083e+00 -7.846568e-01 -2.425080e+00 -1.169137e+01 -7.515223e+00 -6.321230e+00 -2.888777e+00 -6.199497e+00 -3.685932e+00 -7.426913e+00 -3.736494e+00 6.583261e+01 -5.303482e-02 1.307092e-01 1.184720e-01 2.069243e-01 1.969475e-01 2.520242e-01 4.798014e-02 2.641229e-02 -9.788943e-02 7.431556e-02 -1.842173e-03 -3.292980e-02 -5.016786e-01
<VARIANCE> 26
 3.445918e+01 8.271406e+01 4.456368e+01 1.008546e+02 1.108098e+02 1.439201e+02 7.729662e+01 1.016223e+02 7.768113e+01 6.614277e+01 5.385815e+01 5.477226e+01 8.979160e+01 7.373039e-01 1.766780e+00 1.075208e+00 1.914573e+00 1.596483e+00 2.052968e+00 1.976629e+00 2.582418e+00 2.098357e+00 1.742865e+00 1.642745e+00 1.651181e+00 1.203251e+00
<GCONST> 1.101112e+02
<STATE> 4
<MEAN> 26
 -1.415285e+01 -3.421879e-01 -2.101595e+00 6.916558e-01 -3.004901e+00 1.850577e+00 -7.871631e-01 1.200592e+00 1.877555e+00 1.102820e+00 9.231271e-01 1.212879e+00 4.959344e+01 -1.264211e-01 -4.056362e-02 -9.628578e-02 -4.066595e-02 4.034122e-02 6.723820e-02 3.475894e-02 2.785220e-02 3.396942e-02 -2.343454e-02 4.924126e-02 6.605219e-03 -1.067722e-01
<VARIANCE> 26
 2.015373e+01 2.530837e+01 1.147562e+01 1.953024e+01 2.943068e+01 2.110139e+01 1.493126e+01 2.361938e+01 2.771610e+01 2.006149e+01 2.006765e+01 1.610282e+01 3.306770e+01 2.746395e-01 3.293394e-01 6.462128e-01 8.292170e-01 9.379195e-01 1.078437e+00 1.270218e+00 1.333084e+00 1.572692e+00 1.399281e+00 1.303083e+00 1.248984e+00 2.126389e-01
<GCONST> 8.456480e+01
<TRANSP> 5
 0.000000e+00 1.000000e+00 0.000000e+00 0.000000e+00 0.000000e+00
 0.000000e+00 9.694665e-01 3.053351e-02 0.000000e+00 0.000000e+00
 0.000000e+00 0.000000e+00 9.763029e-01 2.369714e-02 0.000000e+00
 0.000000e+00 0.000000e+00 0.000000e+00 9.480642e-01 5.193580e-02
 0.000000e+00 0.000000e+00 0.000000e+00 0.000000e+00 0.000000e+00
<ENDHMM>
