~o
<STREAMINFO> 1 26
<VECSIZE> 26<NULLD><MFCC_D_0><DIAGC>
~h "SIX"
<BEGINHMM>
<NUMSTATES> 5
<STATE> 2
<MEAN> 26
 -2.592347e+01 7.711648e+00 -9.100791e+00 1.747586e+00 -2.589223e+00 -3.454228e+00 2.720324e+00 -6.624665e-01 -1.123862e+00 -1.848173e-01 1.286089e+00 1.370356e+00 5.542551e+01 -2.014399e-01 3.480452e-02 7.514309e-03 -7.332752e-02 -1.344480e-01 -1.934072e-01 9.700964e-02 -4.250471e-02 -5.866193e-02 -5.178911e-02 -1.241200e-01 5.114820e-02 6.811116e-01
<VARIANCE> 26
 5.149884e+01 5.577577e+01 4.439238e+01 2.621630e+01 5.776675e+01 3.545559e+01 5.478935e+01 3.897777e+01 3.100204e+01 2.472486e+01 3.205732e+01 2.414767e+01 5.266864e+01 1.140149e+00 1.249201e+00 1.211922e+00 1.238594e+00 1.494293e+00 1.909523e+00 2.505829e+00 1.792186e+00 1.723800e+00 1.760020e+00 1.664520e+00 1.303245e+00 6.874692e-01
<GCONST> 1.001758e+02
<STATE> 3
<MEAN> 26
 -1.062588e+01 -8.775128e+00 4.373855e+00 -1.854057e-01 -1.698873e+01 -1.617371e+00 -7.203031e+00 -6.358010e+00 -3.015458e+00 -2.061496e+00 5.843264e-01 1.793682e+00 6.571073e+01 5.321630e-02 -8.675188e-02 1.221351e-02 4.634385e-02 -1.205779e-01 -1.258476e-01 3.562853e-03 1.923033e-02 5.850194e-02 -1.811619e-03 5.743614e-02 3.457382e-02 -3.316624e-02
<VARIANCE> 26
 9.054812e+01 1.400235e+02 9.878394e+01 7.412080e+01 1.634357e+02 3.418848e+02 1.069271e+02 8.757649e+01 9.250830e+01 5.662877e+01 4.138375e+01 5.229902e+01 8.977076e+01 4.977337e+00 3.396097e+00 4.026245e+00 2.868547e+00 4.596536e+00 4.661567e+00 3.443573e+00 3.107890e+00 2.729131e+00 2.586845e+00 2.206891e+00 2.193268e+00 3.169225e+00
<GCONST> 1.223418e+02
<STATE> 4
<MEAN> 26
 -2.057642e+01 3.760023e+00 -4.436299e+00 8.766651e-01 -2.148035e+00 -2.209618e+00 3.217769e+00 1.068296e+00 2.407552e+00 1.879180e+00 2.654274e+00 1.537166e+00 5.235770e+01 6.693037e-02 2.605678e-02 2.034851e-02 -4.585160e-02 1.282725e-01 1.226753e-01 -3.599095e-02 -3.454509e-02 2.093364e-02 7.951550e-03 -5.470711e-02 -9.793891e-02 -2.077244e-01
<VARIANCE> 26
 5.172541e+01 2.730304e+01 3.326426e+01 2.376531e+01 4.812623e+01 5.368042e+01 3.128467e+01 3.936916e+01 3.286812e+01 2.470976e+01 2.373099e+01 2.256027e+01 6.147291e+01 7.847233e-01 6.946005e-01 8.351501e-01 1.132207e+00 1.464676e+00 1.601591e+00 1.641695e+00 1.562394e+00 1.622359e+00 1.601681e+00 1.373196e+00 1.351324e+00 5.459239e-01
<GCONST> 9.588436e+01
<TRANSP> 5
 0.000000e+00 1.000000e+00 0.000000e+00 0.000000e+00 0.000000e+00
 0.000000e+00 9.309389e-01 6.906114e-02 0.000000e+00 0.000000e+00
 0.000000e+00 0.000000e+00 9.716576e-01 2.834238e-02 0.000000e+00
 0.000000e+00 0.000000e+00 0.000000e+00 9.762317e-01 2.376829e-02
 0.000000e+00 0.000000e+00 0.000000e+00 0.000000e+00 0.000000e+00
<ENDHMM>
