~o
<STREAMINFO> 1 26
<VECSIZE> 26<NULLD><MFCC_D_0><DIAGC>
~h "THREE"
<BEGINHMM>
<NUMSTATES> 5
<STATE> 2
<MEAN> 26
 -1.532697e+01 1.315343e+00 -1.428540e+00 2.755105e+00 -4.630128e-02 3.792926e+00 2.521452e+00 4.764054e+00 4.425667e+00 3.775478e+00 3.849019e+00 3.372965e+00 4.954517e+01 -1.941707e-02 -3.074904e-02 -6.031012e-02 -4.976536e-02 -5.652240e-02 -4.523281e-02 -6.875521e-02 1.401897e-02 4.533992e-02 -1.545240e-02 -3.197685e-02 8.434008e-03 1.198998e-01
<VARIANCE> 26
 8.163157e+00 1.085658e+01 2.477243e+01 1.636730e+01 4.210183e+01 2.635449e+01 3.368700e+01 3.362866e+01 3.340429e+01 2.770610e+01 2.524348e+01 2.039312e+01 1.906814e+01 3.419604e-01 3.594918e-01 5.779793e-01 8.512641e-01 9.945430e-01 9.422294e-01 1.129241e+00 1.281900e+00 1.372030e+00 1.411999e+00 1.290005e+00 1.196348e+00 3.216641e-01
<GCONST> 8.580109e+01
<STATE> 3
<MEAN> 26
 -3.853294e+00 -2.755915e+00 5.273374e+00 -7.851995e-01 -1.304783e+01 -6.857293e+00 -1.241490e+01 -5.350199e+00 -7.529674e+00 -4.686617e+00 -2.317893e+00 -2.639212e+00 6.343039e+01 2.236809e-01 7.620900e-02 2.416142e-01 2.874990e-02 -9.201444e-02 4.709305e-03 -1.499042e-01 -7.629050e-02 -1.798644e-01 -9.581801e-03 -2.010577e-02 -6.565075e-02 -1.085226e-01
<VARIANCE> 26
 7.793241e+01 7.429812e+01 1.585971e+02 1.358668e+02 1.939063e+02 1.758462e+02 1.067426e+02 1.331182e+02 8.685298e+01 7.754466e+01 6.602327e+01 5.206503e+01 7.102705e+01 2.608770e+00 1.617834e+00 2.812024e+00 2.428702e+00 2.965011e+00 3.265877e+00 3.651970e+00 3.796702e+00 3.177114e+00 2.680518e+00 2.523689e+00 2.180205e+00 1.414657e+00
<GCONST> 1.201011e+02
<STATE> 4
<MEAN> 26
 -1.368555e+01 5.641853e-01 -1.878089e+00 1.345842e+00 -2.849631e+00 4.472815e-01 -1.061346e+00 2.539486e-01 9.147031e-01 1.555532e+00 1.306471e+00 1.555839e+00 4.824724e+01 -6.338387e-02 -3.651831e-02 -1.480085e-01 2.582421e-02 1.139202e-01 7.346955e-02 1.030147e-01 8.733982e-02 3.517700e-02 -1.578854e-02 3.224188e-02 1.877853e-03 -1.015546e-01
<VARIANCE> 26
 1.858501e+01 1.256340e+01 1.540097e+01 1.844570e+01 3.600463e+01 2.948590e+01 3.595108e+01 2.465717e+01 2.342007e+01 1.668747e+01 1.975961e+01 1.496130e+01 6.340911e+01 3.165106e-01 3.832180e-01 8.134206e-01 8.784964e-01 9.317619e-01 1.075591e+00 1.301331e+00 1.558281e+00 1.451604e+00 1.255653e+00 1.284344e+00 1.353223e+00 2.240517e-01
<GCONST> 8.636972e+01
<TRANSP> 5
 0.000000e+00 1.000000e+00 0.000000e+00 0.000000e+00 0.000000e+00
 0.000000e+00 9.406796e-01 5.932048e-02 0.000000e+00 0.000000e+00
 0.000000e+00 0.000000e+00 9.772658e-01 2.273420e-02 0.000000e+00
 0.000000e+00 0.000000e+00 0.000000e+00 9.452171e-01 5.478286e-02
 0.000000e+00 0.000000e+00 0.000000e+00 0.000000e+00 0.000000e+00
<ENDHMM>
