~o
<STREAMINFO> 1 26
<VECSIZE> 26<NULLD><MFCC_D_0><DIAGC>
~h "TWO"
<BEGINHMM>
<NUMSTATES> 5
<STATE> 2
<MEAN> 26
 -1.439814e+01 -3.512814e+00 4.363838e-01 -2.298951e+00 -1.208317e+01 -5.343309e+00 -4.847282e+00 -3.009833e+00 -5.543653e+00 -1.715378e+00 -8.567420e-01 5.720887e-01 6.149817e+01 9.801229e-01 -2.656261e-01 7.191323e-01 2.526401e-01 -4.639831e-01 -6.477677e-01 -5.592974e-01 -1.556314e-01 -4.298493e-01 -2.236080e-01 -2.692234e-03 -2.613515e-01 6.710106e-01
<VARIANCE> 26
 9.121738e+01 8.633439e+01 9.808319e+01 1.069681e+02 1.078866e+02 1.929860e+02 7.260629e+01 6.550317e+01 6.896494e+01 3.890162e+01 4.764204e+01 3.104925e+01 1.178178e+02 4.769235e+00 4.157537e+00 3.335784e+00 3.994900e+00 5.587171e+00 4.085087e+00 3.987838e+00 3.350147e+00 3.548317e+00 3.086353e+00 2.744643e+00 2.355166e+00 3.610149e+00
<GCONST> 1.212289e+02
<STATE> 3
<MEAN> 26
 7.468553e-01 -9.152403e-01 8.947852e-01 2.371791e-01 -1.138935e+01 -7.397835e+00 -1.420988e+01 -6.658765e+00 -1.269318e+01 -2.923898e+00 -1.012968e+00 -3.907386e+00 6.389862e+01 -4.348786e-02 2.535292e-01 -3.370622e-01 4.354528e-02 2.433312e-01 4.536151e-01 1.894595e-01 5.072664e-02 6.479395e-02 1.225980e-01 -5.516993e-02 8.342505e-02 -6.380081e-01
<VARIANCE> 26
 2.832297e+01 6.906810e+01 5.493188e+01 9.889588e+01 1.457923e+02 2.235679e+02 8.277451e+01 1.307802e+02 9.306477e+01 1.024913e+02 7.983394e+01 6.506078e+01 7.059044e+01 5.249809e-01 6.351058e-01 7.693078e-01 1.067516e+00 1.179938e+00 1.455374e+00 2.077235e+00 2.168707e+00 1.897949e+00 1.887425e+00 1.922153e+00 1.700396e+00 3.337724e-01
<GCONST> 1.077341e+02
<STATE> 4
<MEAN> 26
 -1.375743e+01 1.005497e+00 -6.198452e-01 8.536972e-01 -1.787625e+00 1.907118e+00 7.282224e-01 1.336430e+00 2.188206e+00 2.621033e+00 2.333073e+00 1.753101e+00 4.997435e+01 -5.913995e-02 -2.374511e-02 -2.192911e-02 5.106492e-03 -5.116713e-03 6.619450e-03 1.100313e-02 1.855564e-02 3.747276e-02 -1.054623e-02 -1.574941e-02 -1.383430e-02 -4.672530e-02
<VARIANCE> 26
 2.199526e+01 1.536577e+01 2.080254e+01 2.710419e+01 5.121803e+01 3.952032e+01 4.399463e+01 4.420861e+01 4.245210e+01 2.328803e+01 2.564233e+01 2.347725e+01 5.081352e+01 5.032305e-01 3.867129e-01 6.550099e-01 8.894996e-01 1.069979e+00 1.195791e+00 1.246930e+00 1.467226e+00 1.543599e+00 1.469871e+00 1.449224e+00 1.334959e+00 3.738734e-01
<GCONST> 9.152211e+01
<TRANSP> 5
 0.000000e+00 1.000000e+00 0.000000e+00 0.000000e+00 0.000000e+00
 0.000000e+00 9.322759e-01 6.772413e-02 0.000000e+00 0.000000e+00
 0.000000e+00 0.000000e+00 9.616506e-01 3.834936e-02 0.000000e+00
 0.000000e+00 0.000000e+00 0.000000e+00 9.728793e-01 2.712075e-02
 0.000000e+00 0.000000e+00 0.000000e+00 0.000000e+00 0.000000e+00
<ENDHMM>
