~o
<STREAMINFO> 1 26
<VECSIZE> 26<NULLD><MFCC_D_0><DIAGC>
~h "ZERO"
<BEGINHMM>
<NUMSTATES> 5
<STATE> 2
<MEAN> 26
 -1.288317e+01 2.223893e+00 1.970267e+00 2.317793e+00 -9.024060e+00 -5.533079e+00 -5.090565e+00 -4.715996e+00 -3.314878e+00 -3.816244e+00 -1.914934e+00 -5.748673e-01 6.286166e+01 4.783331e-01 -3.675154e-01 8.413983e-02 -1.083900e-01 -2.013600e-01 -4.242113e-01 -3.193598e-01 1.022840e-01 -1.534664e-01 -9.234980e-02 1.259560e-01 2.763744e-02 6.872014e-01
<VARIANCE> 26
 7.588113e+01 1.412921e+02 1.266001e+02 5.512388e+01 1.568238e+02 2.587902e+02 9.413223e+01 7.296308e+01 6.247711e+01 5.726624e+01 4.516346e+01 3.866133e+01 1.254531e+02 3.170300e+00 3.382046e+00 4.156093e+00 2.723892e+00 4.032836e+00 4.854683e+00 3.933430e+00 3.166644e+00 2.554215e+00 2.449635e+00 2.257824e+00 1.991039e+00 1.123810e+00
<GCONST> 1.195898e+02
<STATE> 3
<MEAN> 26
 3.836175e+00 -5.552365e+00 -7.238959e+00 -2.212909e+00 -1.002334e+01 -5.759316e+00 -1.113700e+01 -2.817641e+00 -6.067004e+00 -1.540422e+00 -2.824950e+00 -3.038464e+00 6.554176e+01 -8.255054e-02 1.973589e-01 -2.800762e-01 -9.146160e-03 1.012925e-01 4.155238e-01 2.374721e-01 -9.391334e-02 9.071761e-02 1.449061e-01 -7.411350e-02 -4.765862e-02 -5.098202e-01
<VARIANCE> 26
 3.087966e+01 8.522332e+01 3.274175e+01 7.531416e+01 1.306556e+02 2.173962e+02 8.895570e+01 1.636072e+02 8.775850e+01 8.923208e+01 6.966908e+01 4.261800e+01 9.084194e+01 7.292421e-01 1.008175e+00 1.294105e+00 1.158580e+00 1.593652e+00 1.713197e+00 1.918789e+00 2.481448e+00 2.174350e+00 1.958465e+00 1.706969e+00 1.614755e+00 4.749082e-01
<GCONST> 1.091619e+02
<STATE> 4
<MEAN> 26
 -1.524172e+01 2.523556e+00 -2.010186e+00 -6.620610e-02 -3.094275e+00 -7.788285e-01 -3.753599e-01 1.665654e+00 2.403517e+00 5.000089e+00 5.377198e+00 3.612984e+00 5.614243e+01 -6.380061e-02 -1.291606e-02 2.164808e-03 1.003840e-02 -8.606923e-03 6.414831e-03 1.779776e-03 7.850536e-03 2.058351e-02 -3.550179e-02 -7.374063e-03 -3.086066e-03 -5.737351e-02
<VARIANCE> 26
 3.607343e+01 1.190931e+01 2.014244e+01 2.332613e+01 2.094625e+01 2.343088e+01 2.477704e+01 4.488856e+01 3.150294e+01 2.339113e+01 2.358703e+01 3.278927e+01 4.650122e+01 3.467690e-01 3.440155e-01 6.863403e-01 7.323865e-01 6.758307e-01 9.989300e-01 9.400938e-01 1.168405e+00 1.013251e+00 1.133723e+00 9.931974e-01 9.601842e-01 1.517510e-01
<GCONST> 8.539560e+01
<TRANSP> 5
 0.000000e+00 1.000000e+00 0.000000e+00 0.000000e+00 0.000000e+00
 0.000000e+00 9.646330e-01 3.536697e-02 0.000000e+00 0.000000e+00
 0.000000e+00 0.000000e+00 9.723831e-01 2.761689e-02 0.000000e+00
 0.000000e+00 0.000000e+00 0.000000e+00 9.736161e-01 2.638392e-02
 0.000000e+00 0.000000e+00 0.000000e+00 0.000000e+00 0.000000e+00
<ENDHMM>
