~o
<STREAMINFO> 1 26
<VECSIZE> 26<NULLD><MFCC_D_0><DIAGC>
~h "EIGHT"
<BEGINHMM>
<NUMSTATES> 5
<STATE> 2
<MEAN> 26
 -5.584728e+00 -5.908979e+00 1.315223e+01 -1.201099e+01 -1.586238e+01 -1.129513e+01 -7.126026e+00 -2.958395e+00 -1.188880e+01 1.240538e+00 -1.320705e+00 -4.338395e+00 6.926520e+01 4.369436e-02 3.929179e-01 3.321476e-01 8.968914e-02 -2.170508e-01 -1.127361e-01 -2.538855e-01 -4.774864e-01 1.477971e-02 -2.052327e-01 -5.423888e-02 -6.145377e-03 -2.791240e-02
<VARIANCE> 26
 2.527231e+01 4.501466e+01 5.481806e+01 1.792698e+02 2.802379e+02 8.555592e+01 1.531712e+02 6.898849e+01 7.645957e+01 5.313322e+01 1.227688e+02 5.515859e+01 8.021439e+01 6.308058e-01 1.320484e+00 1.672593e+00 2.549684e+00 1.495314e+00 2.791591e+00 2.395124e+00 2.623451e+00 1.904583e+00 1.832258e+00 2.038999e+00 1.634197e+00 3.552785e+00
<GCONST> 1.131351e+02
<STATE> 3
<MEAN> 26
 -9.701726e+00 -3.802198e+00 5.090417e+00 3.378723e+00 -1.624737e+01 -2.159766e+00 -6.718684e+00 -8.115186e+00 -4.376269e+00 -2.974797e+00 -1.348772e+00 1.364564e+00 5.797050e+01 -3.735410e-01 -7.480164e-02 -3.479613e-01 1.470851e-03 2.637221e-01 8.364713e-02 3.216513e-01 1.545184e-01 1.425531e-01 1.194941e-01 1.453043e-01 1.835522e-01 -4.186972e-02
<VARIANCE> 26
 1.116937e+02 1.188876e+02 1.511601e+02 1.442131e+02 1.631277e+02 1.295482e+02 1.348383e+02 4.951574e+01 4.719492e+01 6.159639e+01 5.406641e+01 2.782494e+01 1.995152e+02 2.899502e+00 2.721175e+00 3.697976e+00 2.375699e+00 4.107910e+00 3.199672e+00 3.123284e+00 2.406489e+00 2.053402e+00 1.866371e+00 2.035990e+00 1.865631e+00 4.364715e+00
<GCONST> 1.196036e+02
<STATE> 4
<MEAN> 26
 -1.543772e+01 7.799029e-01 -1.650937e+00 -4.913832e-01 -3.399549e+00 2.042622e-01 1.405085e+00 1.384973e+00 2.051419e+00 2.149095e+00 2.345264e+00 1.889221e+00 5.083432e+01 7.163949e-02 -5.305391e-02 -3.007871e-02 1.197257e-02 4.550719e-03 3.970640e-02 -2.036417e-02 5.339461e-02 1.508837e-02 -3.504177e-02 -1.407204e-02 -6.253381e-03 -9.218816e-02
<VARIANCE> 26
 1.546572e+01 1.849397e+01 2.801136e+01 3.844816e+01 5.576414e+01 3.754335e+01 4.114973e+01 3.713840e+01 2.470783e+01 2.423763e+01 2.927762e+01 1.952477e+01 4.646745e+01 5.480864e-01 5.895702e-01 9.184678e-01 1.116104e+00 1.211546e+00 1.339027e+00 1.521586e+00 1.605337e+00 1.499195e+00 1.451232e+00 1.438468e+00 1.405946e+00 8.319952e-01
<GCONST> 9.355334e+01
<TRANSP> 5
 0.000000e+00 1.000000e+00 0.000000e+00 0.000000e+00 0.000000e+00
 0.000000e+00 9.365559e-01 6.344411e-02 0.000000e+00 0.000000e+00
 0.000000e+00 0.000000e+00 9.600000e-01 4.000000e-02 0.000000e+00
 0.000000e+00 0.000000e+00 0.000000e+00 9.743590e-01 2.564103e-02
 0.000000e+00 0.000000e+00 0.000000e+00 0.000000e+00 0.000000e+00
<ENDHMM>
