~o
<STREAMINFO> 1 26
<VECSIZE> 26<NULLD><MFCC_D_0><DIAGC>
~h "FIVE"
<BEGINHMM>
<NUMSTATES> 5
<STATE> 2
<MEAN> 26
 -1.649907e+01 -8.895196e-01 -2.443089e+00 1.288590e+00 -2.211353e+00 2.523239e+00 9.121948e-01 2.188485e+00 1.960385e+00 3.057673e+00 1.896771e+00 2.415290e+00 5.235021e+01 5.350989e-01 -6.586043e-02 -1.477437e-01 -3.784367e-01 -1.180663e-01 -8.562872e-03 -7.674803e-02 -1.134662e-01 -1.204624e-01 -1.305208e-02 -1.116866e-01 -2.354117e-01 4.862865e-01
<VARIANCE> 26
 3.498793e+01 2.444973e+01 3.632449e+01 2.995197e+01 5.434029e+01 4.115847e+01 4.133803e+01 4.786016e+01 5.880090e+01 3.092352e+01 2.993361e+01 2.958060e+01 6.186633e+01 3.545659e+00 9.398456e-01 1.028228e+00 2.507178e+00 1.589744e+00 2.222746e+00 1.884838e+00 2.030414e+00 1.984863e+00 1.700770e+00 1.839401e+00 1.906074e+00 1.126207e+00
<GCONST> 1.025931e+02
<STATE> 3
<MEAN> 26
 -2.127972e+00 -9.095200e+00 -4.624675e+00 -6.493816e+00 -1.115996e+01 -1.951742e+00 -4.599794e+00 -3.860853e+00 -3.657647e+00 -2.685175e+00 -6.397800e+00 -3.350105e+00 6.827631e+01 -1.873382e-01 7.871730e-02 1.636415e-01 2.243304e-01 -5.646351e-02 -1.236647e-01 3.303476e-02 3.639815e-02 -1.895949e-02 -1.214113e-02 4.141481e-02 1.321680e-01 -2.260351e-01
<VARIANCE> 26
 5.582867e+01 9.497001e+01 8.347666e+01 1.276834e+02 1.252987e+02 1.776027e+02 8.721517e+01 1.161183e+02 5.981356e+01 5.616089e+01 5.247572e+01 7.607632e+01 6.841116e+01 1.214161e+00 1.413247e+00 1.340368e+00 1.853878e+00 2.301098e+00 2.391324e+00 2.002737e+00 2.237289e+00 1.834536e+00 2.007477e+00 1.910836e+00 1.619433e+00 8.339862e-01
<GCONST> 1.124120e+02
<STATE> 4
<MEAN> 26
 -1.593702e+01 -6.219306e-01 -2.784224e+00 -1.912188e-01 -3.201046e+00 3.970721e-01 -2.073071e-01 1.460911e+00 1.440488e+00 1.231148e+00 4.832482e-01 1.117407e+00 4.967373e+01 -1.415482e-02 -4.655470e-02 -8.538523e-02 -1.399532e-02 1.151566e-01 1.115102e-01 4.382016e-02 1.175993e-01 5.684741e-02 2.913250e-02 -4.864049e-04 -5.766840e-04 -1.246591e-01
<VARIANCE> 26
 8.902823e+00 1.165365e+01 1.245421e+01 9.733253e+00 2.947268e+01 2.785304e+01 1.921011e+01 2.215137e+01 2.547096e+01 1.714991e+01 1.724339e+01 1.518386e+01 2.364957e+01 3.897924e-01 4.520480e-01 6.510178e-01 7.845080e-01 8.926562e-01 1.265163e+00 1.154014e+00 1.549694e+00 1.842387e+00 1.609913e+00 1.528000e+00 1.306869e+00 2.354963e-01
<GCONST> 8.342638e+01
<TRANSP> 5
 0.000000e+00 1.000000e+00 0.000000e+00 0.000000e+00 0.000000e+00
 0.000000e+00 9.559748e-01 4.402515e-02 0.000000e+00 0.000000e+00
 0.000000e+00 0.000000e+00 9.784946e-01 2.150538e-02 0.000000e+00
 0.000000e+00 0.000000e+00 0.000000e+00 9.572302e-01 4.276986e-02
 0.000000e+00 0.000000e+00 0.000000e+00 0.000000e+00 0.000000e+00
<ENDHMM>
