~o
<STREAMINFO> 1 26
<VECSIZE> 26<NULLD><MFCC_D_0><DIAGC>
~h "FOUR"
<BEGINHMM>
<NUMSTATES> 5
<STATE> 2
<MEAN> 26
 -1.446548e+01 -8.048323e-01 -2.630097e+00 4.512866e-01 -4.232142e+00 2.296343e+00 -3.937515e-01 1.858059e+00 1.166673e+00 2.039675e+00 1.621232e+00 2.378973e+00 5.400497e+01 7.592461e-01 2.530772e-01 -8.686256e-02 -6.209549e-01 -4.531211e-01 -1.479197e-01 -1.684310e-01 -1.175481e-02 -2.618955e-01 -1.812326e-01 -6.223556e-02 -1.268325e-01 4.787575e-01
<VARIANCE> 26
 6.445383e+01 3.935433e+01 4.887852e+01 5.182487e+01 8.854241e+01 6.043470e+01 5.462640e+01 4.986861e+01 6.459772e+01 4.475309e+01 3.184132e+01 2.576178e+01 6.139601e+01 3.994525e+00 2.166046e+00 1.413845e+00 3.134091e+00 2.363121e+00 2.792528e+00 1.825198e+00 1.855123e+00 2.272112e+00 1.985973e+00 1.573649e+00 1.655288e+00 9.935090e-01
<GCONST> 1.079626e+02
<STATE> 3
<MEAN> 26
 4.836953e+00 -5.747095e-01 -8.985074e+00 -1.281025e+01 -1.331278e+01 -9.147727e-01 -9.156402e+00 8.416187e-01 -7.683165e+00 -4.679167e+00 -1.969746e+00 -3.209669e+00 6.455119e+01 -1.705338e-01 -2.286878e-01 -1.417124e-01 4.470461e-01 3.127617e-01 3.794250e-02 -1.143994e-02 9.833723e-02 1.109511e-01 6.591856e-03 -5.453065e-04 6.783234e-02 -2.904488e-01
<VARIANCE> 26
 2.453634e+01 7.873444e+01 4.890549e+01 1.844708e+02 1.295005e+02 1.550902e+02 8.257081e+01 1.073262e+02 7.126212e+01 5.580834e+01 8.012879e+01 5.916045e+01 4.987269e+01 4.361182e-01 8.770456e-01 8.506212e-01 1.845987e+00 1.630681e+00 1.867692e+00 1.810674e+00 1.819165e+00 2.260841e+00 1.957742e+00 1.871701e+00 1.701553e+00 4.603395e-01
<GCONST> 1.077834e+02
<STATE> 4
<MEAN> 26
 -1.255946e+01 -1.165776e+00 -5.010791e+00 4.069747e-01 -2.943505e+00 1.597653e+00 -3.477826e-01 2.116773e+00 1.781750e+00 7.085647e-01 1.199013e+00 1.482840e+00 5.033069e+01 -2.114792e-01 6.303284e-02 1.215209e-01 2.328746e-02 -1.491915e-02 8.599144e-02 6.139632e-02 -7.788865e-02 3.834017e-02 6.913551e-02 6.097243e-02 -3.893866e-02 -2.022505e-01
<VARIANCE> 26
 3.263743e+01 2.275724e+01 2.772610e+01 1.966759e+01 3.742047e+01 3.117228e+01 3.003247e+01 2.746576e+01 2.296660e+01 2.294851e+01 2.023100e+01 1.535512e+01 3.645586e+01 3.892865e-01 5.202420e-01 7.809721e-01 8.093024e-01 9.854984e-01 1.204420e+00 1.235704e+00 1.565586e+00 1.452184e+00 1.595152e+00 1.292125e+00 1.308366e+00 3.698239e-01
<GCONST> 8.922148e+01
<TRANSP> 5
 0.000000e+00 1.000000e+00 0.000000e+00 0.000000e+00 0.000000e+00
 0.000000e+00 9.593417e-01 4.065828e-02 0.000000e+00 0.000000e+00
 0.000000e+00 0.000000e+00 9.730250e-01 2.697495e-02 0.000000e+00
 0.000000e+00 0.000000e+00 0.000000e+00 9.498208e-01 5.017922e-02
 0.000000e+00 0.000000e+00 0.000000e+00 0.000000e+00 0.000000e+00
<ENDHMM>
