~o
<STREAMINFO> 1 26
<VECSIZE> 26<NULLD><MFCC_D_0><DIAGC>
~h "NINE"
<BEGINHMM>
<NUMSTATES> 5
<STATE> 2
<MEAN> 26
 -8.971033e-01 3.319183e-01 9.262049e-01 1.521942e+00 -1.296466e+01 -3.007964e+00 -5.813257e+00 -8.885623e+00 -8.747522e+00 -1.523795e+00 -7.216599e+00 -3.128565e+00 5.888728e+01 4.454052e-01 -9.830411e-01 -3.484482e-01 -8.320879e-01 1.274254e-01 -3.252779e-01 -6.147039e-02 7.551519e-01 -9.484704e-03 -3.719514e-01 -1.330915e-01 6.681083e-02 1.452958e+00
<VARIANCE> 26
 6.606989e+01 7.611653e+01 4.562732e+01 1.011144e+02 1.524654e+02 1.222718e+02 7.477335e+01 9.290156e+01 5.827965e+01 5.767834e+01 6.737818e+01 4.768156e+01 1.304028e+02 2.031358e+00 3.695272e+00 2.984618e+00 3.250031e+00 5.572620e+00 2.386257e+00 3.857483e+00 5.551754e+00 3.084542e+00 3.175854e+00 1.867733e+00 2.734396e+00 1.338735e+00
<GCONST> 1.186333e+02
<STATE> 3
<MEAN> 26
 9.110470e-01 -8.613836e+00 -7.554723e-01 -4.194440e+00 -8.485749e+00 -2.516166e+00 -7.096140e+00 -4.734972e+00 -8.696914e+00 -3.981605e+00 -7.815435e+00 -3.340239e+00 6.756668e+01 -1.726611e-01 2.938502e-01 1.020300e-01 2.873388e-01 -6.382983e-02 1.159074e-01 6.376323e-02 -1.541374e-01 -2.920611e-03 1.287455e-01 1.107848e-01 -6.425677e-02 -5.157676e-01
<VARIANCE> 26
 4.333905e+01 1.053639e+02 6.950616e+01 1.678323e+02 1.601152e+02 1.183235e+02 7.743447e+01 1.318061e+02 7.387980e+01 7.761115e+01 5.982891e+01 6.192215e+01 8.572078e+01 4.276277e-01 1.098740e+00 1.048465e+00 1.493826e+00 2.011386e+00 2.030078e+00 2.099325e+00 2.009352e+00 1.961472e+00 2.064585e+00 1.868005e+00 1.586135e+00 4.080116e-01
<GCONST> 1.101063e+02
<STATE> 4
<MEAN> 26
 -1.254508e+01 1.251779e-01 -1.487595e+00 -8.632160e-01 -1.477689e+00 1.745163e+00 -1.269924e+00 2.492042e+00 1.559089e+00 3.077835e-01 6.879982e-01 2.595399e-01 5.164566e+01 -3.209143e-02 -8.486969e-03 -4.111857e-02 -1.249011e-02 3.529873e-02 3.407425e-02 -4.722285e-03 2.063669e-02 2.704898e-02 -2.573919e-03 1.976148e-03 4.998801e-04 -5.285496e-02
<VARIANCE> 26
 3.258337e+01 1.793954e+01 2.129742e+01 3.423450e+01 3.367566e+01 3.276976e+01 3.958056e+01 3.209192e+01 3.135745e+01 3.549814e+01 3.568925e+01 2.912475e+01 6.279626e+01 3.770148e-01 5.027277e-01 8.499409e-01 8.482045e-01 1.247963e+00 1.295793e+00 1.372111e+00 1.371902e+00 1.488926e+00 1.535905e+00 1.465412e+00 1.417323e+00 3.582778e-01
<GCONST> 9.265636e+01
<TRANSP> 5
 0.000000e+00 1.000000e+00 0.000000e+00 0.000000e+00 0.000000e+00
 0.000000e+00 9.232175e-01 7.678245e-02 0.000000e+00 0.000000e+00
 0.000000e+00 0.000000e+00 9.703599e-01 2.964008e-02 0.000000e+00
 0.000000e+00 0.000000e+00 0.000000e+00 9.764310e-01 2.356902e-02
 0.000000e+00 0.000000e+00 0.000000e+00 0.000000e+00 0.000000e+00
<ENDHMM>
