~o
<STREAMINFO> 1 26
<VECSIZE> 26<NULLD><MFCC_D_0><DIAGC>
~h "ONE"
<BEGINHMM>
<NUMSTATES> 5
<STATE> 2
<MEAN> 26
 -2.171452e+00 5.399933e+00 -3.828540e+00 -3.291188e+00 -1.464198e+01 2.772305e+00 -6.994473e+00 -1.673796e+00 -4.604630e+00 -4.047226e+00 -3.352873e+00 -1.934006e+00 5.446902e+01 6.607136e-01 -3.690174e-01 -1.897532e-01 -8.775333e-01 -2.491303e-01 1.313496e-01 9.774007e-02 2.465236e-01 -1.881573e-01 -1.430121e-01 -3.181088e-02 3.694402e-02 1.029004e+00
<VARIANCE> 26
 1.183983e+02 5.249274e+01 2.571436e+01 1.370418e+02 1.178136e+02 7.368973e+01 7.547993e+01 4.186675e+01 4.703440e+01 5.210451e+01 2.685487e+01 3.030867e+01 5.774618e+01 1.824012e+00 3.010755e+00 1.751525e+00 2.359870e+00 2.583573e+00 2.900905e+00 2.133386e+00 2.531216e+00 2.178124e+00 2.127166e+00 1.718193e+00 1.728466e+00 1.176279e+00
<GCONST> 1.099833e+02
<STATE> 3
<MEAN> 26
 2.606913e+00 -4.630677e+00 -3.493608e+00 -5.498573e+00 -8.603830e+00 -2.938477e-01 -7.634259e+00 -4.463532e+00 -9.448776e+00 -3.346492e+00 -7.335068e+00 -6.655002e+00 6.493203e+01 -3.453804e-01 4.881841e-02 1.751119e-01 6.903861e-01 3.088981e-01 -7.871828e-02 8.006455e-02 -1.835533e-01 2.586614e-02 8.270778e-02 -1.305389e-01 -7.554425e-02 -4.636230e-01
<VARIANCE> 26
 2.841526e+01 8.938960e+01 6.336160e+01 1.895581e+02 1.077350e+02 1.875408e+02 6.260792e+01 1.517143e+02 7.839935e+01 7.395652e+01 8.227274e+01 4.969590e+01 7.464234e+01 4.035503e-01 1.559401e+00 1.221882e+00 1.703195e+00 2.511672e+00 2.912798e+00 2.298172e+00 3.138745e+00 2.529136e+00 2.427735e+00 2.090516e+00 2.280429e+00 8.445754e-01
<GCONST> 1.128282e+02
<STATE> 4
<MEAN> 26
 -1.298178e+01 1.262378e+00 -2.508601e+00 6.443270e-01 -6.979765e-01 2.269468e+00 1.240939e+00 2.330975e+00 1.864664e+00 9.935868e-01 1.193831e+00 8.453472e-01 4.903216e+01 -8.553143e-02 -1.347674e-02 -5.236432e-02 -1.708506e-02 -1.665809e-02 -1.266857e-02 -6.175077e-03 2.863522e-02 2.202725e-02 -2.152887e-02 1.112306e-03 -1.496612e-02 -9.130792e-02
<VARIANCE> 26
 2.840099e+01 1.121650e+01 1.863949e+01 5.180355e+01 3.886476e+01 3.491013e+01 2.429078e+01 2.819590e+01 3.052720e+01 4.311242e+01 2.893563e+01 2.220721e+01 2.658881e+01 4.659322e-01 3.866552e-01 6.540605e-01 1.157151e+00 1.346436e+00 1.283761e+00 1.238910e+00 1.530206e+00 1.531940e+00 1.552264e+00 1.435381e+00 1.346848e+00 3.338072e-01
<GCONST> 9.071451e+01
<TRANSP> 5
 0.000000e+00 1.000000e+00 0.000000e+00 0.000000e+00 0.000000e+00
 0.000000e+00 9.344774e-01 6.552262e-02 0.000000e+00 0.000000e+00
 0.000000e+00 0.000000e+00 9.642553e-01 3.574469e-02 0.000000e+00
 0.000000e+00 0.000000e+00 0.000000e+00 9.712722e-01 2.872777e-02
 0.000000e+00 0.000000e+00 0.000000e+00 0.000000e+00 0.000000e+00
<ENDHMM>
