~o
<STREAMINFO> 1 26
<VECSIZE> 26<NULLD><MFCC_D_0><DIAGC>
~h "SEVEN"
<BEGINHMM>
<NUMSTATES> 5
<STATE> 2
<MEAN> 26
 -2.051547e+01 2.040947e+00 -4.042832e+00 1.427707e+00 -3.146716e+00 8.670589e-01 1.417923e+00 -3.312550e-01 1.609217e+00 6.553806e-01 1.532590e+00 1.804262e+00 5.537041e+01 5.286222e-01 -2.108646e-01 -6.892379e-03 -1.966423e-01 -3.946739e-01 -4.033130e-01 -1.957065e-01 -4.141695e-02 -2.297532e-02 -1.663126e-01 -1.830520e-01 -8.318419e-02 6.529142e-01
<VARIANCE> 26
 7.159610e+01 9.645387e+01 8.022630e+01 2.518612e+01 1.019523e+02 1.053396e+02 6.604137e+01 3.750455e+01 4.192488e+01 3.777496e+01 2.970158e+01 2.297366e+01 8.448923e+01 4.408846e+00 1.742849e+00 1.856977e+00 1.528768e+00 2.490986e+00 3.084399e+00 2.211413e+00 1.694104e+00 1.893795e+00 1.686525e+00 1.941027e+00 1.310739e+00 9.253830e-01
<GCONST> 1.081221e+02
<STATE> 3
<MEAN> 26
 -2.450901e-01 -4.709658e+00 -8.076273e-01 -2.446895e+00 -1.176444e+01 -7.537185e+00 -6.346903e+00 -2.953359e+00 -6.253731e+00 -3.752213e+00 -7.471313e+00 -3.756129e+00 6.586330e+01 -4.592334e-02 1.293208e-01 1.155727e-01 1.997370e-01 1.970728e-01 2.493789e-01 4.768477e-02 2.540369e-02 -1.033859e-01 7.441393e-02 -7.203321e-03 -3.511718e-02 -4.962654e-01
<VARIANCE> 26
 3.460705e+01 8.189790e+01 4.451379e+01 1.010091e+02 1.107793e+02 1.446711e+02 7.825413e+01 1.016240e+02 7.705918e+01 6.586259e+01 5.362714e+01 5.490808e+01 8.996671e+01 7.602034e-01 1.780655e+00 1.091707e+00 1.929569e+00 1.600003e+00 2.068886e+00 1.983373e+00 2.592525e+00 2.096317e+00 1.747317e+00 1.651251e+00 1.658312e+00 1.220605e+00
<GCONST> 1.102151e+02
<STATE> 4
<MEAN> 26
 -1.403218e+01 -2.433325e-01 -2.042638e+00 7.091383e-01 -2.969942e+00 1.830125e+00 -8.357759e-01 1.267125e+00 1.941002e+00 1.167419e+00 9.400697e-01 1.237289e+00 4.970116e+01 -1.290159e-01 -3.814611e-02 -9.531039e-02 -3.186522e-02 4.020241e-02 6.570053e-02 3.263877e-02 2.847480e-02 4.485948e-02 -2.479007e-02 5.557873e-02 1.182406e-02 -1.125090e-01
<VARIANCE> 26
 2.145368e+01 2.636313e+01 1.189027e+01 1.958984e+01 2.948296e+01 2.125706e+01 1.517415e+01 2.395520e+01 2.792894e+01 2.042770e+01 1.993722e+01 1.598179e+01 3.393105e+01 2.732063e-01 3.276321e-01 6.440607e-01 8.347715e-01 9.321971e-01 1.075112e+00 1.264293e+00 1.319383e+00 1.577893e+00 1.392100e+00 1.303144e+00 1.245600e+00 2.143814e-01
<GCONST> 8.475584e+01
<TRANSP> 5
 0.000000e+00 1.000000e+00 0.000000e+00 0.000000e+00 0.000000e+00
 0.000000e+00 9.694101e-01 3.058995e-02 0.000000e+00 0.000000e+00
 0.000000e+00 0.000000e+00 9.762309e-01 2.376910e-02 0.000000e+00
 0.000000e+00 0.000000e+00 0.000000e+00 9.485924e-01 5.140759e-02
 0.000000e+00 0.000000e+00 0.000000e+00 0.000000e+00 0.000000e+00
<ENDHMM>
