~o
<STREAMINFO> 1 26
<VECSIZE> 26<NULLD><MFCC_D_0><DIAGC>
~h "SIX"
<BEGINHMM>
<NUMSTATES> 5
<STATE> 2
<MEAN> 26
 -2.596738e+01 7.736861e+00 -9.112217e+00 1.718657e+00 -2.585463e+00 -3.493286e+00 2.729416e+00 -6.605887e-01 -1.139132e+00 -1.902312e-01 1.295352e+00 1.369653e+00 5.546154e+01 -1.858970e-01 3.331767e-02 1.962931e-02 -7.978020e-02 -1.460064e-01 -2.054501e-01 9.310848e-02 -4.531493e-02 -6.507786e-02 -5.689692e-02 -1.328378e-01 4.390913e-02 6.840039e-01
<VARIANCE> 26
 5.107693e+01 5.517092e+01 4.433129e+01 2.626418e+01 5.790393e+01 3.526900e+01 5.500846e+01 3.932950e+01 3.100846e+01 2.464340e+01 3.216863e+01 2.426324e+01 5.279854e+01 1.194801e+00 1.260738e+00 1.238726e+00 1.251889e+00 1.516817e+00 1.929289e+00 2.510882e+00 1.791894e+00 1.739224e+00 1.767351e+00 1.676765e+00 1.314739e+00 6.890749e-01
<GCONST> 1.003220e+02
<STATE> 3
<MEAN> 26
 -1.057232e+01 -8.821167e+00 4.405886e+00 -1.704456e-01 -1.701288e+01 -1.590184e+00 -7.232087e+00 -6.368303e+00 -3.017356e+00 -2.062117e+00 5.766458e-01 1.803539e+00 6.571444e+01 4.639085e-02 -8.666639e-02 7.503026e-03 4.969352e-02 -1.170661e-01 -1.220358e-01 4.323872e-03 2.136765e-02 6.083090e-02 -4.673794e-04 6.072181e-02 3.683653e-02 -3.596149e-02
<VARIANCE> 26
 8.965447e+01 1.395522e+02 9.837987e+01 7.424745e+01 1.631516e+02 3.423930e+02 1.065444e+02 8.745142e+01 9.263964e+01 5.670957e+01 4.138225e+01 5.231901e+01 8.988953e+01 4.969518e+00 3.395347e+00 4.020533e+00 2.864738e+00 4.593671e+00 4.659240e+00 3.442214e+00 3.111793e+00 2.724174e+00 2.587024e+00 2.203321e+00 2.190484e+00 3.171204e+00
<GCONST> 1.223165e+02
<STATE> 4
<MEAN> 26
 -2.058147e+01 3.763260e+00 -4.437642e+00 8.710975e-01 -2.152799e+00 -2.216290e+00 3.223069e+00 1.066924e+00 2.411423e+00 1.878383e+00 2.656277e+00 1.529975e+00 5.235927e+01 6.768479e-02 2.629738e-02 2.010800e-02 -4.623142e-02 1.293523e-01 1.237541e-01 -3.543017e-02 -3.526314e-02 2.139666e-02 8.680895e-03 -5.414068e-02 -9.735266e-02 -2.075459e-01
<VARIANCE> 26
 5.174315e+01 2.724418e+01 3.329206e+01 2.376522e+01 4.824806e+01 5.375428e+01 3.127951e+01 3.939118e+01 3.282455e+01 2.472851e+01 2.369605e+01 2.254572e+01 6.150937e+01 7.811245e-01 6.948215e-01 8.352810e-01 1.132782e+00 1.463659e+00 1.600119e+00 1.642940e+00 1.561202e+00 1.622277e+00 1.600127e+00 1.371777e+00 1.351341e+00 5.456902e-01
<GCONST> 9.587789e+01
<TRANSP> 5
 0.000000e+00 1.000000e+00 0.000000e+00 0.000000e+00 0.000000e+00
 0.000000e+00 9.312602e-01 6.873977e-02 0.000000e+00 0.000000e+00
 0.000000e+00 0.000000e+00 9.716024e-01 2.839756e-02 0.000000e+00
 0.000000e+00 0.000000e+00 0.000000e+00 9.762309e-01 2.376910e-02
 0.000000e+00 0.000000e+00 0.000000e+00 0.000000e+00 0.000000e+00
<ENDHMM>
