~o
<STREAMINFO> 1 26
<VECSIZE> 26<NULLD><MFCC_D_0><DIAGC>
~h "THREE"
<BEGINHMM>
<NUMSTATES> 5
<STATE> 2
<MEAN> 26
 -1.534188e+01 1.287631e+00 -1.493782e+00 2.756188e+00 -7.630178e-02 3.801169e+00 2.503900e+00 4.794055e+00 4.405347e+00 3.765475e+00 3.846636e+00 3.381341e+00 4.960665e+01 -2.337050e-02 -3.320313e-02 -6.395788e-02 -4.873584e-02 -5.549752e-02 -5.083666e-02 -7.601534e-02 1.297904e-02 4.978415e-02 -1.531820e-02 -2.775373e-02 7.610569e-03 1.269503e-01
<VARIANCE> 26
 8.223409e+00 1.102711e+01 2.556666e+01 1.627861e+01 4.219905e+01 2.667293e+01 3.355460e+01 3.366888e+01 3.353010e+01 2.770948e+01 2.529087e+01 2.037487e+01 1.961959e+01 3.463046e-01 3.622858e-01 5.802446e-01 8.523338e-01 9.929412e-01 9.463995e-01 1.144017e+00 1.283515e+00 1.370159e+00 1.402978e+00 1.289094e+00 1.195213e+00 3.339631e-01
<GCONST> 8.596577e+01
<STATE> 3
<MEAN> 26
 -3.820687e+00 -2.753878e+00 5.337511e+00 -8.150920e-01 -1.306875e+01 -6.894199e+00 -1.244812e+01 -5.388079e+00 -7.563637e+00 -4.708195e+00 -2.338863e+00 -2.664699e+00 6.344839e+01 2.273530e-01 7.705385e-02 2.438204e-01 2.976619e-02 -9.118688e-02 6.164543e-03 -1.476833e-01 -7.668137e-02 -1.819112e-01 -8.596652e-03 -2.156751e-02 -6.342137e-02 -1.108302e-01
<VARIANCE> 26
 7.792583e+01 7.453282e+01 1.584197e+02 1.362045e+02 1.946150e+02 1.760054e+02 1.069308e+02 1.331657e+02 8.690317e+01 7.779055e+01 6.605193e+01 5.209703e+01 7.131153e+01 2.618041e+00 1.623038e+00 2.824433e+00 2.435960e+00 2.976029e+00 3.277015e+00 3.659907e+00 3.810564e+00 3.183079e+00 2.690592e+00 2.533362e+00 2.184094e+00 1.414687e+00
<GCONST> 1.201593e+02
<STATE> 4
<MEAN> 26
 -1.362029e+01 5.401002e-01 -1.885154e+00 1.382732e+00 -2.912178e+00 4.203725e-01 -1.123927e+00 2.236087e-01 8.921923e-01 1.528027e+00 1.300529e+00 1.547836e+00 4.832649e+01 -6.520051e-02 -3.492153e-02 -1.456143e-01 2.288083e-02 1.093988e-01 7.496346e-02 1.022370e-01 8.761547e-02 3.327553e-02 -1.818379e-02 3.151292e-02 -3.534873e-03 -1.038183e-01
<VARIANCE> 26
 1.892130e+01 1.281738e+01 1.528507e+01 1.891940e+01 3.651478e+01 2.988376e+01 3.633533e+01 2.480696e+01 2.348668e+01 1.663991e+01 1.996428e+01 1.498887e+01 6.391930e+01 3.145539e-01 3.832540e-01 8.058621e-01 8.794571e-01 9.331200e-01 1.071990e+00 1.299486e+00 1.552542e+00 1.459009e+00 1.256673e+00 1.277457e+00 1.356725e+00 2.236011e-01
<GCONST> 8.646950e+01
<TRANSP> 5
 0.000000e+00 1.000000e+00 0.000000e+00 0.000000e+00 0.000000e+00
 0.000000e+00 9.410113e-01 5.898876e-02 0.000000e+00 0.000000e+00
 0.000000e+00 0.000000e+00 9.771491e-01 2.285092e-02 0.000000e+00
 0.000000e+00 0.000000e+00 0.000000e+00 9.455959e-01 5.440414e-02
 0.000000e+00 0.000000e+00 0.000000e+00 0.000000e+00 0.000000e+00
<ENDHMM>
