~o
<STREAMINFO> 1 26
<VECSIZE> 26<NULLD><MFCC_D_0><DIAGC>
~h "TWO"
<BEGINHMM>
<NUMSTATES> 5
<STATE> 2
<MEAN> 26
 -1.442677e+01 -3.501775e+00 3.968506e-01 -2.278142e+00 -1.200168e+01 -5.290807e+00 -4.822928e+00 -2.994000e+00 -5.529529e+00 -1.721166e+00 -8.759860e-01 5.808226e-01 6.148083e+01 9.822775e-01 -2.640080e-01 7.204162e-01 2.519503e-01 -4.643731e-01 -6.515314e-01 -5.606842e-01 -1.565646e-01 -4.303936e-01 -2.281605e-01 -3.565591e-03 -2.637272e-01 6.727144e-01
<VARIANCE> 26
 9.121968e+01 8.648518e+01 9.768712e+01 1.070078e+02 1.076636e+02 1.926438e+02 7.249438e+01 6.562399e+01 6.923351e+01 3.893515e+01 4.750301e+01 3.100310e+01 1.180253e+02 4.784799e+00 4.169667e+00 3.346285e+00 4.006732e+00 5.611159e+00 4.089649e+00 3.990678e+00 3.357576e+00 3.555884e+00 3.085581e+00 2.751663e+00 2.353746e+00 3.621868e+00
<GCONST> 1.212532e+02
<STATE> 3
<MEAN> 26
 7.637873e-01 -9.365265e-01 9.494889e-01 2.203476e-01 -1.147091e+01 -7.484477e+00 -1.426350e+01 -6.665299e+00 -1.273774e+01 -2.942819e+00 -1.024320e+00 -3.949435e+00 6.395518e+01 -3.876811e-02 2.527714e-01 -3.390317e-01 4.391014e-02 2.456257e-01 4.575521e-01 1.900338e-01 5.343183e-02 6.366662e-02 1.266824e-01 -5.369367e-02 8.178001e-02 -6.366012e-01
<VARIANCE> 26
 2.838149e+01 6.914845e+01 5.521417e+01 9.927284e+01 1.463527e+02 2.238905e+02 8.245304e+01 1.311346e+02 9.283091e+01 1.027790e+02 7.996531e+01 6.488895e+01 7.025288e+01 5.219795e-01 6.386262e-01 7.667571e-01 1.066598e+00 1.175802e+00 1.452768e+00 2.080119e+00 2.167526e+00 1.906618e+00 1.895434e+00 1.918753e+00 1.707343e+00 3.341185e-01
<GCONST> 1.077481e+02
<STATE> 4
<MEAN> 26
 -1.371973e+01 1.004599e+00 -6.369597e-01 8.514400e-01 -1.802982e+00 1.911710e+00 7.088483e-01 1.307216e+00 2.162761e+00 2.616180e+00 2.335573e+00 1.762257e+00 4.999461e+01 -6.181585e-02 -2.344742e-02 -2.088428e-02 5.560282e-03 -6.539881e-03 5.647347e-03 1.084619e-02 1.687081e-02 3.790376e-02 -1.153864e-02 -1.652524e-02 -1.182365e-02 -4.898368e-02
<VARIANCE> 26
 2.227409e+01 1.551370e+01 2.088425e+01 2.718185e+01 5.121025e+01 3.960644e+01 4.403387e+01 4.435354e+01 4.251923e+01 2.324985e+01 2.572190e+01 2.350303e+01 5.087679e+01 5.047915e-01 3.862333e-01 6.560949e-01 8.905560e-01 1.069483e+00 1.197286e+00 1.249573e+00 1.469398e+00 1.538417e+00 1.466496e+00 1.452026e+00 1.333006e+00 3.752799e-01
<GCONST> 9.157026e+01
<TRANSP> 5
 0.000000e+00 1.000000e+00 0.000000e+00 0.000000e+00 0.000000e+00
 0.000000e+00 9.320388e-01 6.796116e-02 0.000000e+00 0.000000e+00
 0.000000e+00 0.000000e+00 9.615032e-01 3.849679e-02 0.000000e+00
 0.000000e+00 0.000000e+00 0.000000e+00 9.729903e-01 2.700964e-02
 0.000000e+00 0.000000e+00 0.000000e+00 0.000000e+00 0.000000e+00
<ENDHMM>
