~o
<STREAMINFO> 1 26
<VECSIZE> 26<NULLD><MFCC_D_0><DIAGC>
~h "ZERO"
<BEGINHMM>
<NUMSTATES> 5
<STATE> 2
<MEAN> 26
 -1.349125e+01 2.746540e+00 1.827579e+00 2.393185e+00 -9.093021e+00 -5.186371e+00 -4.755135e+00 -4.889650e+00 -2.839113e+00 -3.789266e+00 -2.108580e+00 -5.394855e-01 6.210943e+01 4.603668e-01 -3.636281e-01 1.848107e-01 -9.132396e-02 -2.482158e-01 -4.346240e-01 -3.518069e-01 7.103226e-02 -1.581479e-01 -1.045835e-01 1.126835e-01 6.993631e-03 7.194629e-01
<VARIANCE> 26
 7.087261e+01 1.401373e+02 1.302986e+02 5.183462e+01 1.423028e+02 2.632043e+02 9.161992e+01 6.884737e+01 5.689791e+01 5.504700e+01 4.473868e+01 3.871305e+01 1.153406e+02 3.265139e+00 3.502286e+00 4.069565e+00 2.719401e+00 4.065996e+00 4.966180e+00 3.975381e+00 3.196769e+00 2.545761e+00 2.464643e+00 2.221294e+00 1.978607e+00 1.118867e+00
<GCONST> 1.191585e+02
<STATE> 3
<MEAN> 26
 3.687448e+00 -5.650446e+00 -6.812646e+00 -2.107764e+00 -9.929495e+00 -5.994107e+00 -1.116315e+01 -2.755609e+00 -6.313006e+00 -1.639058e+00 -2.647393e+00 -2.972158e+00 6.599162e+01 -5.014981e-02 1.744523e-01 -3.392901e-01 -2.489026e-02 1.239131e-01 3.929294e-01 2.416604e-01 -6.438363e-02 8.583604e-02 1.444218e-01 -5.751328e-02 -2.945422e-02 -4.911142e-01
<VARIANCE> 26
 3.092844e+01 8.413897e+01 3.807215e+01 7.709887e+01 1.421579e+02 2.154025e+02 8.923451e+01 1.629528e+02 8.901101e+01 8.994604e+01 6.934352e+01 4.254747e+01 9.591059e+01 7.715015e-01 1.019074e+00 1.398095e+00 1.217302e+00 1.636828e+00 1.755071e+00 1.941783e+00 2.491724e+00 2.194325e+00 1.961256e+00 1.758185e+00 1.640006e+00 4.953288e-01
<GCONST> 1.098278e+02
<STATE> 4
<MEAN> 26
 -1.525151e+01 2.522907e+00 -2.008496e+00 -6.644455e-02 -3.100780e+00 -7.834385e-01 -3.716666e-01 1.665252e+00 2.409582e+00 5.002142e+00 5.373341e+00 3.608720e+00 5.613176e+01 -6.354891e-02 -1.278399e-02 2.048413e-03 1.004790e-02 -8.299675e-03 6.745622e-03 1.186470e-03 7.715755e-03 2.021473e-02 -3.467153e-02 -7.377878e-03 -3.797421e-03 -5.690702e-02
<VARIANCE> 26
 3.588374e+01 1.188476e+01 2.012101e+01 2.338525e+01 2.097390e+01 2.343930e+01 2.474666e+01 4.492577e+01 3.146038e+01 2.338161e+01 2.363774e+01 3.281188e+01 4.653707e+01 3.465208e-01 3.441492e-01 6.864495e-01 7.341557e-01 6.753979e-01 9.995335e-01 9.416075e-01 1.169011e+00 1.012727e+00 1.135303e+00 9.922877e-01 9.587675e-01 1.512185e-01
<GCONST> 8.539216e+01
<TRANSP> 5
 0.000000e+00 1.000000e+00 0.000000e+00 0.000000e+00 0.000000e+00
 0.000000e+00 9.628975e-01 3.710247e-02 0.000000e+00 0.000000e+00
 0.000000e+00 0.000000e+00 9.733672e-01 2.663285e-02 0.000000e+00
 0.000000e+00 0.000000e+00 0.000000e+00 9.736015e-01 2.639849e-02
 0.000000e+00 0.000000e+00 0.000000e+00 0.000000e+00 0.000000e+00
<ENDHMM>
